-3.238361357594412571e+00 -4.516671979215494126e+00 -6.192368867847184433e+00 2.796504033231148156e+00 -1.419854531836808986e+00 -1.237490262321566004e+00 -2.270017871529934617e+00 6.343892416595291017e+00 4.414435071084912288e-01 2.625563682498223805e+00 6.318200657067352566e+00 3.508603523077431507e+00 1.165204965241242618e+00 -9.904163501435362393e-01 -2.581864477588055595e-01 -3.966933003600800478e-01
1.085648355699316703e+01 -3.986926894622999651e+00 -4.520409604680900806e+00 -6.928113998818060892e+00 -1.445307086037270317e+00 2.004112366020097458e+00 8.519858975943849444e+00 -4.139555566332316694e+00 -6.178245071177628223e-01 -3.816003591503676962e+00 -4.631871420893193481e+00 1.133787365178014150e+00 -6.533163447127036783e+00 -6.801859175713542705e-01 -3.704771299556093744e+00 -7.855276925795521281e-01
-1.106679991412649500e+00 5.106704016009651959e+00 3.283218196383042464e+00 4.492775994661250216e+00 -5.229092950490011660e+00 2.971441747806164102e+00 1.434363269746977920e+00 -4.477629016329301437e-01 -1.757595992439243471e+00 1.561335896149863789e+00 -5.321301836932060825e-01 -1.542992629426743534e+00 -9.477433602523713807e-01 8.247291364631827160e-02 -4.554079629863394985e+00 -7.686748714296208485e-02
5.897939090185774447e+00 -1.434631318273356326e+00 5.270697546650261467e-01 -8.342774003579714659e+00 1.950218391744444002e+00 -3.459563538484531353e+00 -5.856789885623611802e+00 -4.667020668747684731e+00 -1.812567019726350370e+00 7.229147697491879576e+00 -1.057904526903921294e+01 1.482088946873981516e+00 -2.281112116086815078e+00 -1.027667928267802067e+00 8.849864456730058393e+00 -9.339227793263493727e-01
-5.394946522712463777e-01 2.892794988593435423e+00 2.058059970583869802e-01 1.880993023810834774e+00 8.250854423806908144e+00 -1.054500583918618339e+00 -4.523440719134342203e+00 -1.257690335085920097e+00 1.150568891481953404e+00 -2.272373305086569761e+00 -4.809946205805032626e+00 -1.952239423841388488e+00 6.465077184292635781e-01 1.184788494991750041e-01 5.168411334028040649e+00 -2.414417080270295224e-01
-9.926579320475447110e-01 3.058179344179968950e+00 2.930455213525716918e+00 2.919534027360502826e+00 -5.658431812519456372e+00 -3.323935125987539596e+00 -1.188733035248869863e+00 -5.799537219412114197e-01 -2.146594059905306343e-02 6.000323399286233705e-02 1.340973528455160713e+00 1.165553423320358162e+00 1.159948705332176200e+00 -3.191018523621954817e+00 -9.045270323015884628e+00 -6.610507610275593304e-01
6.804701018522811840e-01 1.307589973247732740e+00 4.219298914922022803e-01 -7.251454767161106929e+00 6.379448880179115378e+00 -3.551940976694088814e+00 -6.315471294042017680e-01 -4.920819061015779816e+00 3.687175518107872474e+00 -1.884736370965806929e+00 -1.536002035175866975e+00 2.902947613921689651e+00 8.762735320098256064e-01 1.419869379844385548e+00 8.104889296792187059e-01 -7.919598178131781463e-01
-3.008985026171794974e+00 6.346515201650075433e+00 -1.179196735844299848e+00 3.425134907048342781e-01 -4.380868455286743846e+00 -3.292084651378532345e-01 -5.702257892687476293e+00 6.085211638631228270e-01 5.213834449196451004e+00 4.514268742455755934e-01 1.085869105172628934e+01 6.097150701148881247e-01 -3.941073584879531300e+00 -4.623495677378303803e+00 -3.812546528842077009e+00 -2.916586208285203985e-01
-1.160519311189853298e+00 -4.979694541311446621e+00 4.120122517138199214e+00 9.894694021238007453e-01 -8.332941373782038141e+00 -2.311204866710455885e+00 1.371796509633919969e+00 -8.444035751697183123e-01 8.789419531480990866e-01 -9.062028205530268110e-01 2.636556960037285791e+00 7.404396165902795701e-01 -1.023825922580671843e+00 3.755805952509135626e+00 1.615532195405591898e+00 -8.524285077032516256e-01
-4.989950260239119473e+00 -2.722282373341303963e+00 -1.425580469105557579e+00 9.460938003945787989e-01 4.716561846208527697e+00 1.519128389794447420e+00 -6.436279907913443843e+00 -1.890705179003344227e+00 9.718857853961713644e+00 -2.811145627969064087e+00 2.090767342554106456e+00 -3.913109350396845598e-01 -1.961079310219412258e-02 -9.918566296081633704e-02 3.530317459085156262e+00 -3.792794244124987890e-01
7.966252262659762051e-01 -5.601633119192094057e+00 6.484645330742659919e-01 3.259940064703682250e+00 2.838553349303884588e+00 7.330503768197218495e-01 -4.444648607474714019e+00 1.416354874289780241e+00 -1.958229467339614116e+00 1.210942760258948869e+00 2.376111473055938283e+00 -1.970103797399846757e+00 -2.632032516463856275e+00 -1.440958799587451544e+00 2.499273200737078149e+00 -2.922787465998370471e-01
-1.604215453888644394e+00 1.910537224333779927e+00 -3.738026069215738545e-01 8.632302350779050837e-01 -3.722316952417537017e+00 6.323044979983333258e-01 -3.124777490512656297e-01 -7.196927286339156460e+00 4.568548801616150179e+00 2.369082811824678170e-01 2.339772677381207977e+00 -7.734061736499524553e-01 -1.521470358737744277e+00 9.408523127382349693e-02 -2.493951922398787158e+00 -3.782845435397193534e-01
-5.086591860342212224e-01 -2.106735860196758292e+00 -3.895285906673095488e-01 -1.484660066010661916e+00 -4.401378012387700878e+00 5.702000381604350743e+00 -8.484377372906655446e-02 1.007104713174081567e+00 1.366809604614317886e+00 5.873727372086900544e+00 -1.894034005114359820e+00 -1.390571617548366001e+00 6.677267804729661860e-01 -4.477981064643089759e+00 4.884429162044627404e+00 -5.839201232889946747e-01
-6.723335688268512911e+00 8.267683593518349028e+00 4.667352806079850147e+00 -4.223732979449380309e+00 -6.859483361581398819e-01 6.442961160404298226e+00 6.401079135359206695e+00 -1.126221192029936757e+00 4.865654327491016062e-02 -5.164409787184577993e+00 2.605270243753087467e+00 -1.365245529804779867e+00 -6.356567651843423761e+00 1.910388568590295932e+00 -2.901890279512568060e+00 -3.817827333558374558e-01
6.924256026211943471e-01 1.659999194964933533e+00 1.885502503637833005e+00 -1.635200786114402671e+00 6.724738417928472600e+00 -2.454645922005441960e+00 -3.140064035795844699e+00 -2.920131754312890404e+00 3.953737542682883799e+00 -2.853459866717399596e+00 5.812000055882628580e+00 -1.262421794175545120e+00 1.699031359169719702e+00 1.014375821093420171e+00 -6.547958737468878354e+00 -7.736213554528582614e-01
-1.085751563835817279e+01 1.144333728323050137e+00 4.424563055979120030e+00 -6.275168615616334655e+00 1.692534368137659895e+00 1.361880561238787424e+00 -3.099573795185901037e+00 1.415929650342699198e+01 -1.183473668973541892e+00 2.516889219937548106e+00 1.044565796267535651e+00 3.251165195772464322e+00 -1.398195952082568994e+01 1.267186908844355031e+00 5.318530460922662684e+00 -1.904717273521982224e-01
-1.962478513322584606e+00 2.657027284856127380e+00 -2.975342368735430565e+00 1.211208311805911109e+01 -2.298867196581482641e+00 1.486695424067596472e+00 1.047799345652884284e+01 5.532214170321932301e+00 -3.614344954833470069e+00 -1.211983506549110523e-01 1.412762934577949325e+00 7.809096666447056245e-01 1.141126591512275112e+01 2.949855082938843687e-01 -1.985614822553880776e+00 -1.104964631346560866e+00
