-2.050076890348403680e+00 -7.096674440651485227e+00 4.793659630403591443e+00 1.043743867248327017e+00 8.711993706199155918e-02 -4.256350108500844276e-01 3.148572755920042709e+00 4.723124916647916116e+00 -6.024657736390565121e-01 -4.676459732917245482e+00 -1.519383413747528999e-01 1.935100043313880080e+00 4.124940936567385918e+00 -3.165449604959361007e+00 9.783469468258693125e-01 2.421876879944683925e+00
-7.948513131084039784e+00 4.247571691555708462e+00 3.671773662517535008e+00 -2.133041613425259997e-01 -1.768426211203080634e+00 -1.581941053071648007e+00 -1.686190720103408092e+00 2.850202494539886722e+00 -3.378113224772737677e+00 1.987729272148360371e+00 1.841746501589884843e+00 -2.020849539128038330e+00 -1.101311482621585824e+01 3.840053140148699473e+00 4.370434944467902483e+00 -9.888275219646696090e-01
-9.349112489761582934e-01 9.962822748584418964e-01 -2.266761073848509778e+00 2.948037491052031278e-01 4.569366362061701992e+00 -3.385622984455596285e-01 -1.871015529062097560e+00 2.750507646043240051e+00 -3.019697797153778063e-01 1.210925301256071451e+00 4.932026261274675694e-01 2.060303300643234969e+00 1.181537023675356818e-01 1.478293897555911673e+00 -5.912870440595394683e-01 -5.449041435660371135e+00
-2.917897403310978355e+00 4.317793249289457513e+00 8.966918875921224830e-01 2.200363190853272144e+00 -1.446204481708654122e+01 7.459971621894310179e-01 3.203453151149601386e+00 -6.682761744134899651e+00 5.905618620811099895e+00 5.687155607537484059e-01 -2.610062735610964690e+00 7.104717994328934694e+00 2.871118631018251044e+00 4.639018832744533860e+00 4.215790869055574319e+00 -2.009849080433479873e+00
-1.126875994964829486e+00 3.514296996379442373e-01 -3.459104088723785164e+00 -4.583092898641318302e-01 -4.014996441434353081e+00 -1.542588107059372993e+00 -3.895512644213282361e+00 -6.166522851137575145e+00 -8.187743851468468059e-02 7.886195579540959955e-01 -3.541711675252936065e+00 -1.898304722609192030e-01 3.810251892726287615e+00 6.835579452982488924e+00 -9.445183157664119866e-01 6.012050308647216568e+00
-1.141460920865477346e+00 -2.267304621407427057e+00 -2.860508454243233967e+00 3.443708232511878187e+00 6.120580796534338397e+00 1.271669047726581736e+00 -4.581662742870990512e-01 -2.735085224143433358e+00 -6.839016383968813395e-01 4.129254332861317600e+00 5.496019449317772754e+00 2.015248542902985385e+00 3.575470968829480567e-01 -3.069807671247547720e+00 3.322077968781347868e-01 -1.948821626793319606e+00
-4.768325489564181341e-01 2.594661592870597833e+00 -2.574141243839047632e+00 2.336994163163883087e+00 -1.957055850138358144e+00 -1.400961711185655600e+00 6.578677091763669438e+00 -4.854231076973342773e+00 -2.660431621989587825e+00 8.316773388335485517e-01 -1.945294728548004892e+00 -1.853700822308560481e+00 -3.190585358692838991e+00 -1.564854263535825574e+00 -7.151933433693320907e+00 3.619328934371730089e+00
-4.689926929612807660e-01 -9.540099057305541308e+00 -4.774945838138887844e+00 9.121760154843714385e-01 -1.050180748251287932e+00 -5.567684293735949419e-01 -4.830666466990987118e+00 4.502154209607931001e+00 -3.116294609482325728e-01 1.330534733765881716e+00 4.168274790461349438e-02 3.734011585309490400e+00 1.923521915988145814e+00 -7.146995135955035217e+00 -2.799137857796943241e+00 1.049669617859589829e-02
8.609754395452723363e-01 3.051252923416865936e+00 4.572775249762017324e+00 3.753346753385316870e+00 3.387331653509919160e+00 -7.715520455531242883e-01 1.365517116838047773e+00 -2.057498192446189478e+00 2.388608603433586275e+00 1.457678386171049612e-01 -7.918632712325531786e-01 -3.173405948968329948e+00 -8.840905015359015739e-02 -4.893058853403664532e-01 -3.352290130264636403e+00 -1.084997026051612679e+01
6.252765391998556410e+00 -1.575653003951493547e+00 1.633761106697488863e+00 9.739348997220366178e-01 -4.716187936400474179e+00 -3.720373605718032550e+00 -3.026129550802949986e+00 5.001647830697121933e+00 -1.024122733749102343e+00 2.682122760031531605e+00 -1.044849788710903482e+01 -2.230779814150275264e+00 6.295239974771764224e+00 -3.337621801165439273e+00 -4.245143529017894046e+00 1.593103510724210858e+00
1.982254408816205848e-01 -1.442606886654298926e+00 4.699023268102488160e+00 -1.138662466128181672e+00 -6.743009938212187748e-01 2.435442830003710757e+00 -5.128830726792924288e+00 3.242129948975543741e+00 3.221314767872769824e+00 3.575389444267620842e+00 -1.909987814750259805e+00 2.832571868770904722e+00 -1.901821765596553859e-01 -4.182588294694892461e+00 3.187691911426486224e-01 -1.033293557607211755e+00
-4.655838008428416219e-01 1.989680265986010221e+00 -1.431809465174668672e+00 -3.283902149849912688e-01 2.351899604826526602e+00 -3.302812099225879372e+00 -1.988988322926596997e-01 1.411426284444859958e+00 -4.146986426675261406e+00 1.569229915493836947e+00 -3.569416500789419633e+00 -4.214125816067507829e-03 1.398957492640063027e-01 -3.649839189921627813e+00 -4.782201266775443216e+00 -3.651292274052383213e+00
4.263531922136661656e+00 -6.129921924814650813e-01 4.424548524441360264e+00 -1.770413935562958008e+00 -8.893442053693163540e-01 1.646763897467076410e+00 -4.250758867079830750e-01 1.271500455307152055e+00 3.986318197701359978e+00 -2.360011906420307781e+00 -8.826862601789852159e-01 7.665337802330830286e+00 2.523120316988561207e+00 -3.157859590671907135e+00 -9.327606939945913833e-01 6.592606669375898676e+00
7.136833078461330082e+00 1.186125828288380202e+00 -7.820575357837633135e+00 -2.500206728668397993e+00 -1.117442964436565989e+00 -7.494173149281532220e-01 -6.050667456378445941e+00 5.552794429108745433e+00 -3.308618722673074330e+00 -3.143442443503314365e+00 4.371765862347984033e+00 -4.129302797326833918e+00 -7.326128306713603600e+00 -2.554292964432295587e+00 -5.855506888586353931e+00 -1.000318103231220723e+00
-1.585368578104557891e+00 -1.207509124058362415e+00 -2.531466874766864272e+00 3.409819963679628696e+00 -5.196772368181166168e-01 9.476649475310019444e-01 4.905059955162737850e+00 -2.885145478906539829e+00 -7.023602504984508776e+00 4.953519558350376606e+00 -2.229025316401969992e+00 -4.626023603726316047e+00 -2.524590613184194421e+00 -2.414267050339302223e+00 -1.613739717478170244e+00 3.825273379069049184e+00
9.135884273227548036e+00 -8.273212018131465229e+00 -2.173680430758145654e+00 2.180695326054081506e-01 -1.301131194262275415e+01 8.677922356944997029e-01 -4.922476541128227190e+00 1.242676880936570250e+01 1.015612185761197672e+01 -1.480943156839327202e+00 9.512588895830420554e+00 -2.282325422015660354e+00 6.531304706466340981e+00 -7.756759793215425858e-02 -8.210012945610037249e+00 -5.618467860223511856e+00
-4.893822316103039194e-01 1.771569776914938332e+00 -2.990219043103062635e+00 1.297790967606025359e-01 1.337642520019810988e+01 -4.435998445645319421e-01 1.026807119407358249e+00 1.021045042769205491e+00 -1.789007595560933250e+00 -5.906885208040205448e+00 3.694033638420523236e+00 6.858757458083460934e-01 1.806586009400308779e+00 5.632025465677450882e+00 3.623475674151205084e+00 -2.966991933098452439e+00
