4.538426858866140279e+00 2.535330446429608919e+00 -1.973639377249609028e+00 -2.034550111249834536e+00 -4.233200435181807109e+00 2.733513041669199950e+00 -6.874681686818024495e+00 -4.194727586020116306e+00 -6.779501247804115005e-02 -5.781687253218720457e+00 -1.671173694633543705e-01 7.641803669239721764e-01 -6.374023933991262991e-01 2.256016151049876906e-01 -2.053332689550195767e+00 1.110879014218998151e+00
2.624444869022293236e+00 -2.013636472964112301e+00 1.349890442671400903e-01 6.400985775067439043e+00 2.995535355433855074e+00 -5.158930199175526532e+00 5.267617590036858255e-01 2.467594348257393932e-01 -3.100865148124862358e+00 -5.608475668014937021e+00 -2.422422731760859982e+00 -2.360950200932611320e+00 -2.062584521188621345e+00 -2.482867371168655080e+00 -4.379931299026013081e-01 2.793736356274117982e-02
4.876375076386873175e+00 -2.734162913253134430e+00 -4.133688435370322267e+00 3.503736140015093259e+00 2.071588265447347421e+00 -2.971584861983422865e+00 3.627709230634344806e+00 -3.570690941635795035e+00 -8.989665403562172585e+00 3.006396373360018526e+00 5.285802630598032126e-01 -1.100893936839952625e+00 -1.867260242598559328e-01 -1.677983781015044640e+00 -2.079052995396551751e+00 -2.121175761697859485e+00
1.959221663145029657e+00 -3.636782450259763433e+00 -7.038122788254820295e-01 -3.843219306227532606e+00 -7.464332816674025928e+00 -1.941056656909489586e+00 -5.453030760794058018e+00 -5.421147921215502263e-01 -9.478837563495728702e+00 -2.607815473013232133e+00 -6.404880608468863645e-01 -2.941312379665821819e+00 -2.865824822614359224e+00 -1.363777796552945398e+00 -2.057292460941339218e+00 -1.973308037426405814e+00
-1.264409416464612024e+00 9.622946894269977847e+00 -5.350952880639093578e+00 -4.668735617483296352e+00 2.640099675909151955e+00 -2.066317442978906627e+00 -2.796861681616543471e+00 -7.191672155278426182e+00 3.243624843264736879e-01 -2.849732840229590725e+00 -2.254228239320192895e+00 -8.632752140047137424e-01 -1.329980358766980952e+00 -3.981508043386673967e-01 -3.467277800181176595e-01 -1.179031697188488714e-01
3.813106797812389370e+00 3.074480180158406517e-01 1.032837084029830432e+00 -2.316498394680476469e+00 4.114323041717270479e-01 8.858662912063952621e-01 1.293718763633493474e+00 4.403260190016441283e-02 -2.151194589547547331e-01 -2.153489413263024732e-01 -1.892882053877893211e+00 6.673036549505365622e-01 5.168125452498468775e-01 1.469387017092995906e+00 1.552591889894259447e+00 -7.672726570183929784e-01
-3.115810050441398804e+00 -2.782166368581959759e+00 6.638475695060880533e+00 -3.141744664087481986e+00 -9.349143524714612630e-01 -2.280012481987741868e+00 -2.894308717651515650e+00 -5.109643654268970714e+00 4.119380061243650637e+00 -2.175690378492063370e+00 -5.704302677561270407e-01 7.724890643904199772e-01 6.804558242095759546e-01 9.015114053454431620e-01 1.147510704320777064e+00 1.235696621553189933e+00
-8.798576823678389003e-01 -9.811887155332101429e+00 -5.299348383707354948e+00 -5.839174425624356957e+00 2.232110397784358824e+00 -9.109950187136467425e-02 2.471468076030757466e+00 -4.022823587310751847e+00 2.324081099762549840e+00 5.694534206793053777e+00 -2.089897403589026759e+00 -1.329857011284288459e+00 -7.283664970395397065e-01 -2.340981610129853951e+00 4.363693641219142383e-01 -2.828952425187722941e+00
1.870421407687659965e+00 -6.220580751545139897e+00 -2.738211718383441351e+00 5.372219021353791035e+00 -1.901344022784356103e+00 -2.816946729129178983e+00 4.820149540014680989e-01 -2.373686957997784397e+00 5.557767117178092242e+00 -1.044625577377625181e+00 -1.319908791661131175e+00 9.601620701741285790e-01 -1.281421269107275496e+00 -3.037884520216862505e-01 -3.068098253074473709e-03 -1.295237222757534612e+00
-6.829107939666798188e+00 -1.637835112668602378e+00 -1.929341595926168162e+00 -2.395012590175833012e+00 2.603889598360276114e+00 2.319015375998718653e+00 -5.959582242158273147e+00 3.094085452099288425e+00 -2.989244824631310138e+00 3.230619574234281810e+00 -1.389775786306944649e+00 -1.463989267389157245e+00 -1.116712746685679658e+00 -2.954890924542132424e+00 -7.652976563680073951e-01 -1.503762861352775149e+00
-4.869285188085075156e+00 2.379963422648350146e+00 -7.140829472982598070e+00 -6.686014909514172544e+00 -5.565126976817458271e+00 2.063848975444416922e+00 2.172724673883276836e+00 4.681876760383018699e+00 1.631656028667886726e+00 -6.210568379424532104e+00 1.891791418056561203e-01 -2.287467694168730414e+00 -6.753163125679120249e-01 -8.878937663932044977e-01 -2.813776121446918133e+00 -5.589964345235680643e-01
-5.497970782812229729e+00 2.550286031456021618e+00 -1.065454993241927717e+00 -4.147326838756966616e+00 1.242588219487109180e+00 -6.224386265789193295e+00 -2.444685296937643582e+00 4.088576887371781154e+00 4.246284222579698842e+00 -4.542074804392899345e+00 -1.921714746101099491e+00 -1.379246030212263330e+00 -1.493248834408539061e+00 -6.413878745722717545e-01 -3.190647691373128314e+00 -1.315713722146550690e+00
-3.677442361403980287e-01 1.596762146622377143e+00 5.650076867070901177e-01 4.240236165006295188e+00 -6.341591647861120506e+00 -4.189088458189434760e+00 -3.264814104399370809e+00 -4.891753713073997645e+00 1.881325796995683142e+00 4.625823066413115470e+00 -7.217108663920668299e-02 1.660023722481532016e-01 8.222876341881346640e-01 6.176035674550201665e-02 -3.853005765279378658e-01 -2.144595400142205843e+00
-4.635095092720333376e+00 9.699658182266943096e-02 7.227120114783306404e-01 9.905996117786278754e-01 -5.508463760330357673e+00 3.970668988139787636e+00 3.470620457686920624e+00 -1.903863117901371638e+00 5.983093638757248645e-01 -6.077477103040648920e+00 -1.983576704993818884e+00 -6.627206553005056122e-01 -1.531468397143155025e-01 -1.524023869268219533e+00 8.201439900834269848e-04 -2.322667031148279104e+00
-2.167124513781157891e+00 4.554003906781103339e+00 1.010505665907977857e+00 1.467837283510736057e+00 2.956619454884088505e+00 7.504097335999122542e-01 4.483178787399739740e+00 -2.563715991554705642e+00 -6.963739305848391403e+00 -6.158391190393997405e+00 1.424361295734179800e+00 1.482195775286926920e-01 -4.654673350734714332e-01 1.774281083783233681e+00 1.257162360685273983e+00 -1.814984548732515135e+00
1.012563366608264070e+00 -7.308102358339866100e+00 6.397382014106034909e+00 -2.366503672693661020e+00 1.560699122886924917e+00 7.847920561654625482e-01 8.194742565525926087e-03 -4.638149661712909655e+00 3.321032240102769761e-01 7.015928615016249204e-01 2.363907107999580759e-01 7.995060286298692753e-02 -6.710560640097487095e-01 -1.936059911437433501e+00 -2.011784916532235457e+00 1.054891767572606609e+00
